{
  "labels": {
    "labels": [
      "good",
      "bad"
    ],
    "rows": 2
  },
  "mlp": {
    "layers": [
      {
        "activation": 2,
        "biases": [
          -0.13577165066659636,
          -0.5487450670036667,
          -0.0850465434135329,
          -0.015405800257483749,
          -0.13396292403510557,
          0.3291887633695965,
          0.06460332291440715,
          0.15142227836646185,
          0.30798600772367696,
          -0.23944658148503978,
          0.23300826180979792,
          -0.26114718088424066,
          -0.0994756584754316,
          0.13107834967383386
        ],
        "cols": 14,
        "rows": 20,
        "weights": [
          [
            -0.4024591623697361,
            0.221961914829058,
            -0.5883901743672081,
            0.4033908425946381,
            -0.39992730804668714,
            0.5779982493663831,
            -0.6914596884344986,
            0.006372010760144426,
            -0.3941055681884457,
            -0.3164703764647931,
            -0.1949331780484238,
            -0.053808115462665375,
            -0.8462259446058455,
            0.41001206290220177
          ],
          [
            0.0172030167153799,
            1.0731774816692436,
            -0.8568761890491207,
            0.20065811593687094,
            0.48579765116891477,
            -0.04561248711939444,
            -0.2968175953255389,
            0.025040789976067856,
            0.11366246071622702,
            0.015117728202999753,
            0.03448641848912249,
            0.4121436846986114,
            -0.25591933543845846,
            -0.19856341410737957
          ],
          [
            0.46550636714357607,
            -0.6041452489719368,
            0.42759692238682406,
            0.4509647835479627,
            -0.4455552610486576,
            0.23700236611896647,
            -0.006204799099729941,
            -0.43774453039246036,
            0.39808402756677147,
            0.2111433905978923,
            0.5599578103082195,
            0.03002917303571109,
            0.13031530503726824,
            0.18836952182407174
          ],
          [
            0.011643810747427619,
            -0.6447002426344663,
            0.15281282696212362,
            -0.9614522735934558,
            0.043844366838951446,
            -0.4715578160372833,
            -0.075179500199568,
            0.2056497627794529,
            0.1982153453847849,
            -0.37704295050003067,
            0.3961318175798178,
            -0.1733707878263713,
            -0.21540694607943936,
            -0.1195659845727498
          ],
          [
            -0.010328876165121889,
            -0.0930213582878946,
            0.3541607264896773,
            0.30555222903805423,
            0.03525276242295779,
            -0.1425033153094596,
            -0.26440373044036963,
            -0.4344236939586169,
            -0.2985423644281773,
            -0.41413580582612874,
            -0.3411486466266356,
            -0.14791684897041354,
            0.02228998545453809,
            -1.0177959519898152
          ],
          [
            -0.22788918804821923,
            0.23308649285288885,
            -0.4179268854298103,
            -0.5583337565083675,
            -0.14555065164998543,
            -0.10124046569410101,
            -1.2109115340831715,
            -0.22319860314788803,
            -0.3242805315316567,
            -0.05617234976005495,
            -0.243061182031693,
            -0.06281266984656184,
            -0.7617362263598093,
            0.5725679179702494
          ],
          [
            0.1573675917446291,
            -0.4018765523950946,
            0.1833374374108871,
            -0.3723690557813008,
            0.10601477132123072,
            -0.4251579156354216,
            0.7185415838842909,
            -0.5021481435468431,
            0.47131688709725844,
            0.18295112392557192,
            0.8845923381994256,
            -0.2433662324182798,
            -0.13438731002329124,
            0.4460197449234965
          ],
          [
            -0.013213778727726038,
            0.014006292559099432,
            0.3469967357170257,
            0.7000210835637711,
            -0.29080704823151377,
            -0.37800961981224007,
            0.07203750758320512,
            0.35214286082905544,
            0.06235158500613862,
            0.20881907690492665,
            -0.06394300623798793,
            -0.38247653717903574,
            0.21896760073560056,
            -0.05950964652922906
          ],
          [
            -0.29543778948800503,
            -0.09860045797145153,
            -0.426118237559576,
            0.08370980312658474,
            0.13011937045812327,
            -0.22784680007684616,
            -0.5706977961162368,
            -0.08447107910444354,
            0.10785822094779432,
            0.31322653785969407,
            -0.2576242772891885,
            0.2843556117207954,
            -0.8735320875444444,
            0.7245074803531105
          ],
          [
            -0.13668702761847407,
            0.05519392947541527,
            -0.3758996390055243,
            0.5174797956425853,
            -0.6268848023312558,
            -0.5887137431994118,
            0.41801970213462714,
            0.2351983459608556,
            -0.2800369703673975,
            0.20099068557809538,
            -0.16803922484081388,
            -0.051835919177615104,
            0.5688931370477063,
            0.9606755117832882
          ],
          [
            -0.0019387721640807406,
            0.11186234578178833,
            -0.18926267617858297,
            -0.30253230151910343,
            0.6524079948175329,
            0.08733228961583135,
            0.26873205346705165,
            0.21746868430894095,
            -0.06595253629564513,
            -0.18861681892861631,
            -0.04864999741998627,
            -0.3490168722419824,
            -0.37403551937143625,
            -0.21134435994266007
          ],
          [
            0.17627060238763578,
            -0.47110022253906353,
            -0.6347079627655607,
            0.1513502368161636,
            1.0242500106772572,
            -0.5374319537345769,
            -0.14461638129383075,
            -0.4263233674330314,
            -0.6510337759544593,
            -0.349692255771354,
            -0.6335245173956296,
            0.2723915306482979,
            -0.026851289854918782,
            -1.213678180477218
          ],
          [
            0.06280187207912089,
            -0.17186641312351172,
            0.21371904323412774,
            0.054990824441840835,
            0.13986784218835938,
            0.3907960853290795,
            -0.2505906270272724,
            0.17131538142566108,
            -0.8415905200275422,
            -0.1339589096135094,
            0.028654562967542367,
            0.37452090170877045,
            -0.4435703056595376,
            -0.1755501316162416
          ],
          [
            -0.46062786602082845,
            0.391625619246808,
            0.4123317730212165,
            0.4087548808563028,
            -0.2225032021799598,
            -0.5431219956997837,
            -0.9460785765467361,
            -0.09120328397962836,
            -1.0065250139835682,
            0.05818521517796092,
            -0.5607427897610441,
            0.2440829705874859,
            -0.5162625794673734,
            1.130883587256999
          ],
          [
            0.329604258283388,
            -0.49249265021736605,
            -0.43967622055613786,
            -0.05035242988064254,
            -0.6065199212154945,
            -0.11941936416178142,
            0.2707760245503741,
            -0.4236200083955144,
            0.00853027963818737,
            -0.0006016894642080459,
            -0.12979469027519314,
            -0.5184338084257253,
            0.5047590380914687,
            0.054492027767361284
          ],
          [
            -0.32262129715804866,
            -0.49198711362806613,
            0.41928812745499616,
            -0.4148313485956613,
            0.13211803911453937,
            0.5931355126072392,
            0.01853368350084313,
            -0.1305081744388312,
            0.4069537672243365,
            -0.02639367099113938,
            0.3504330860834282,
            0.04392224771475904,
            -0.19507654848506326,
            -0.2817680268223872
          ],
          [
            -0.10301302544349619,
            0.5314353768109038,
            -0.09859249559321494,
            0.05799669123216375,
            0.08881462361874233,
            -0.5004634922419825,
            0.6381361850385076,
            0.4044764302176172,
            0.7218588209229638,
            -0.2972484091328375,
            0.6803674419850311,
            0.43343881916939314,
            0.23380961735373987,
            -0.8074202059816872
          ],
          [
            0.22825313034017453,
            0.0740401686416956,
            -0.3557681824403603,
            -0.3424971124375645,
            -0.14072128150875565,
            -0.4406957579057478,
            0.6717004785174377,
            0.355727454335845,
            0.46778949107701756,
            -0.36992188768323175,
            0.16494186397074503,
            -0.29006371888873606,
            0.7404095588616584,
            -0.22911851537915728
          ],
          [
            0.07664941216721206,
            -0.043753982845077755,
            0.9003826178493198,
            -0.04262475274550972,
            0.05775989760769315,
            -0.34844038505539965,
            -0.41620588201340647,
            -0.4246629450517752,
            0.44330218618603306,
            -0.44726332543219255,
            0.4007873565425374,
            0.5076191282061223,
            -0.058114183121380336,
            -0.3220607312235913
          ],
          [
            0.025750861847847237,
            -0.30000300706334504,
            0.09447444725643263,
            0.1341882879647455,
            -0.6755605880593243,
            0.14125757612887266,
            -0.19277726051109464,
            -0.042496164289170926,
            0.4850241189896385,
            0.44406502878683946,
            0.3035296784426988,
            -0.040060280434313034,
            -0.42813816686028405,
            0.2784976933801772
          ]
        ]
      },
      {
        "activation": 1,
        "biases": [
          0.39864055327824266,
          -0.3956610477285498
        ],
        "cols": 2,
        "rows": 14,
        "weights": [
          [
            0.2842209563726241,
            -0.29449626487998487
          ],
          [
            -1.1797985718446737,
            1.2099990861006804
          ],
          [
            -1.2589151769752733,
            1.2363543270357755
          ],
          [
            0.9768336724659323,
            -1.0432041530819172
          ],
          [
            -1.1657658946734861,
            1.0807492648145516
          ],
          [
            1.139821482607938,
            -1.1119148460533368
          ],
          [
            1.6367106483699656,
            -1.3889344318148447
          ],
          [
            -0.46728772524259593,
            0.36966912526923157
          ],
          [
            1.4280411489068656,
            -1.3139443733820417
          ],
          [
            -0.5046686912840593,
            0.7734108059353608
          ],
          [
            1.0050807548361977,
            -1.2237191400017686
          ],
          [
            -0.5452806046537905,
            0.6380392729297516
          ],
          [
            1.2948141839858212,
            -1.3417121157202965
          ],
          [
            -1.7469906485746884,
            1.7333837957943603
          ]
        ]
      }
    ]
  }
}
