{
  "labels": {
    "labels": [
      "bad",
      "good"
    ],
    "rows": 2
  },
  "mlp": {
    "layers": [
      {
        "activation": 2,
        "biases": [
          -0.050849850690115224,
          -0.08520431725659906,
          -0.01668994252689007,
          -0.4433453776576652,
          0.2476710949161441,
          0.09156168746328486,
          1.0438379150825638,
          0.41393905999184694,
          -0.0722497042464948,
          0.46781308702466645,
          -0.591319843256067,
          -0.09150645371744824,
          0.7004202264702306,
          0.12107451392878019
        ],
        "cols": 14,
        "rows": 20,
        "weights": [
          [
            -0.3876130947517711,
            0.23799625836288593,
            -0.12033148503529548,
            0.6270727712038128,
            0.22850799340879907,
            0.03848596253443839,
            -0.5724347127692198,
            0.0967774965519067,
            -0.7658170676764235,
            -0.32135823227672267,
            0.0353882677229801,
            0.3762728997047491,
            0.6858441301810289,
            0.27049288045036046
          ],
          [
            -0.280754771378275,
            -0.12242849576020404,
            0.4099868685271189,
            0.03470829757225982,
            -0.5499984521335816,
            0.08354119466045594,
            -0.00038262058820930355,
            0.3023973660857384,
            -0.2818534119061993,
            0.12012446461751025,
            0.27551983149815795,
            -0.2008904555982358,
            0.9574890796554059,
            0.7091317347438135
          ],
          [
            0.21824558675082129,
            0.2142192722376545,
            0.26718627386332905,
            -0.4350379087534039,
            -0.27032129984860304,
            0.025469182114511026,
            -0.5578537232664602,
            0.562818829041931,
            0.06697616910701057,
            1.0523878071439636,
            -0.2784772028534426,
            -0.025694968213950075,
            0.34971537853409224,
            -0.5986062293532157
          ],
          [
            -0.05549667889477761,
            0.07343327857710807,
            0.2202850790296108,
            -0.3267836137831324,
            0.2901796274134219,
            -0.7623502244614387,
            0.03230259676022524,
            -0.052674339217958756,
            -0.07140080686594108,
            0.47906636143266945,
            1.1291694100538314,
            -0.26229092279805244,
            -0.8255379771641361,
            -0.7516999312873311
          ],
          [
            0.08969611625675819,
            0.2970811165900375,
            0.11915326816551525,
            0.1561160490558578,
            -0.027435213146939894,
            -0.14109535776083418,
            -0.5120082438824137,
            0.36411132946411356,
            -0.6287985164719365,
            -0.2069610024981408,
            0.4521144987721935,
            0.08497220201257673,
            -0.7280003359190591,
            0.0003573990115098507
          ],
          [
            -0.19200216447885868,
            -0.03580826980809915,
            -0.2571027853179149,
            -0.10284484120790383,
            0.015156978325748211,
            0.09604324186566468,
            -0.4364753244863054,
            0.03336071240195995,
            0.8587878835736856,
            -1.00012589037984,
            0.18525454501655733,
            -0.0074481813982757925,
            -0.5571434254641536,
            0.21290790520470673
          ],
          [
            -0.2712742215743733,
            -0.3085543580880263,
            0.1418863247653771,
            -0.8802091238344836,
            0.06321943526686828,
            0.40975341081011746,
            0.226998093497855,
            -0.5002661593371543,
            -0.11094146995996643,
            0.1216780629330792,
            0.20158859931653417,
            0.2361389141693066,
            0.6935706423317439,
            -0.6234624893237052
          ],
          [
            0.046015680097238484,
            0.08500442008989656,
            0.4397830999503611,
            -0.11007193437451458,
            -0.01236231167331441,
            0.03322136612971059,
            -0.8671269238545277,
            0.39197194053020173,
            0.0675024392467827,
            0.24044859568022614,
            -0.3017756394300868,
            -0.24851827885225086,
            0.14345630397152045,
            0.11328411023042877
          ],
          [
            0.1929417448088527,
            -0.1793203803786768,
            -0.20333399215448503,
            0.38690518825067344,
            0.9828362364877614,
            0.07705338865472203,
            0.13327734149708484,
            -0.3288584058118149,
            0.09355780605474691,
            0.1536737640694664,
            -0.28256570447313334,
            -0.2384595340307271,
            0.6510424510104016,
            -0.36614713957645206
          ],
          [
            0.2891556575319534,
            -0.0961623420604996,
            -0.262665596881995,
            -0.31704667350513877,
            0.722198072232609,
            0.24807964428137141,
            -0.6640949972659306,
            -0.6468578387517522,
            0.32239542616651856,
            0.5093896776019274,
            -0.34797842956644526,
            0.2210267117171172,
            -0.3314665566398367,
            0.2994622200909892
          ],
          [
            -0.1266156741324613,
            0.13164766730346408,
            0.11678579982556452,
            0.009002160866983319,
            -0.22667727536361015,
            0.2149745182273924,
            -0.1769396116969249,
            0.1261281604207096,
            -0.09166862130228096,
            0.5148077082377166,
            0.7807356641487452,
            0.34594901026794145,
            -0.9279356023385252,
            0.4507511578444106
          ],
          [
            0.04063076690129265,
            0.2521193874389769,
            -0.18156761256576226,
            -0.4977089435169372,
            0.08375500613588385,
            0.30653220250147445,
            0.33432041353061925,
            0.7654624832897884,
            0.1319866532451427,
            -0.19895890735514749,
            0.34436222918428805,
            0.2025107045407196,
            -0.7559453115501882,
            0.6048173463680525
          ],
          [
            0.29597313002723286,
            -0.07079561099062608,
            -0.15464002165590707,
            -0.6329714830009658,
            -0.43782247068008423,
            -0.013895729427356092,
            -0.6863791986391444,
            -0.19163170366856955,
            -0.1490873892439778,
            -0.019517451765357876,
            -0.366376434875782,
            0.2777615039902548,
            0.13487154972470936,
            -0.5194994474288869
          ],
          [
            -0.3513219944502342,
            -0.22477620548030608,
            -0.055152874811714284,
            0.123441297471376,
            0.0849267247474864,
            0.2795415054717618,
            0.005694479862257455,
            -0.3915662480723244,
            -0.2457407142552453,
            -0.1917515341648244,
            -0.15191911882823098,
            -0.43115460601275307,
            0.209982224263296,
            -0.1124396287154203
          ],
          [
            -0.3762017428550254,
            0.2290421871680681,
            -0.12664028259992163,
            -0.03194320850122896,
            0.20853940545747612,
            0.006042996243424505,
            -0.6116602895966855,
            -0.08904266064090849,
            -0.21168107350287926,
            0.8492356202559498,
            0.00950158879800964,
            0.14549539207742693,
            -0.4537318549079554,
            -0.02229595152640574
          ],
          [
            0.02482480459821504,
            -0.12629762346891266,
            -0.3885907587831295,
            -0.036716573551995695,
            0.1608220285264956,
            0.3206647840709506,
            -0.7386150011384526,
            0.09658195459981506,
            0.020353446089244016,
            -0.45227461653314566,
            0.6563324237157545,
            0.4982926630406314,
            0.18226585646226554,
            -0.07271721767045085
          ],
          [
            0.16434117111576804,
            -0.04994455372322156,
            -0.162860542116067,
            0.20566142858683267,
            0.5233234529525119,
            -0.6192360396607711,
            0.4276567482019887,
            -0.5764622268100712,
            -0.5486244130912419,
            0.4435810772969928,
            1.0298325835890438,
            0.019133281112268787,
            -0.21792157741244622,
            0.08626061738091852
          ],
          [
            -0.42995223270582533,
            0.16401941537365378,
            0.2444641488704393,
            -0.7301015580165833,
            0.7327787238040911,
            -0.5893568167214698,
            -0.2231528167818201,
            -0.026044521541244557,
            -0.3433303907046206,
            -0.3853855402099827,
            0.4626776935275013,
            0.24834988415912057,
            0.5633094976983117,
            -0.2283460011479397
          ],
          [
            -0.1124825562141721,
            0.44369442074866233,
            0.3407547149904186,
            0.25591108618278485,
            -0.3204401743464201,
            0.13246286424426526,
            0.039409692979449365,
            -0.01995028635582476,
            0.3687721224744749,
            -0.39674866261401165,
            0.07334260330507088,
            -0.24419646053359922,
            -0.8024699828978811,
            0.06843414131249809
          ],
          [
            -0.30915567866216326,
            -0.025629632484832267,
            -0.299794550261149,
            0.0921965077329842,
            0.050817598895395756,
            -0.2747763222067503,
            0.7367776996471546,
            0.5937584637782821,
            -0.1247808428907993,
            0.7097716699845684,
            -0.8611128957154542,
            0.16481994591041088,
            0.6731327302312052,
            -0.23514085713353522
          ]
        ]
      },
      {
        "activation": 1,
        "biases": [
          -0.01802010443565031,
          0.12440563581333942
        ],
        "cols": 2,
        "rows": 14,
        "weights": [
          [
            -0.09688451657440493,
            -0.19546701361486768
          ],
          [
            -0.5484498064041412,
            -0.1334936451616726
          ],
          [
            -0.5141133898344049,
            0.22785821970794556
          ],
          [
            1.2600116444164304,
            -0.8850968875951505
          ],
          [
            -1.072645370223325,
            1.0804868318863294
          ],
          [
            0.945690156318384,
            -0.5678343327678051
          ],
          [
            -1.5978525114581592,
            1.4908140032361188
          ],
          [
            -0.8721286177868723,
            1.1888358048070407
          ],
          [
            0.8080876595997688,
            -0.8411329992797734
          ],
          [
            -1.4062081127070076,
            1.6195918877657411
          ],
          [
            1.5617306661814696,
            -1.5898794447313347
          ],
          [
            -0.5296321774621541,
            0.4360544493912606
          ],
          [
            1.8795526527722444,
            -1.8707770851772838
          ],
          [
            0.8826900862918521,
            -1.1511499400577148
          ]
        ]
      }
    ]
  }
}
